digraph Tree {
node [shape=box] ;
0 [label="physician fee freeze <= 1.5\nentropy = 0.971\nsamples = 348\nvalue = [209, 139]"] ;
1 [label="adoption of the budget resolution <= 1.5\nentropy = 0.168\nsamples = 201\nvalue = [196, 5]"] ;
0 -> 1 [labeldistance=2.5, labelangle=45, headlabel="True"] ;
2 [label="synfuels corporation cutback <= 1.5\nentropy = 0.677\nsamples = 28\nvalue = [23, 5]"] ;
1 -> 2 ;
3 [label="education spending <= 0.5\nentropy = 0.961\nsamples = 13\nvalue = [8, 5]"] ;
2 -> 3 ;
4 [label="duty free exports <= 1.0\nentropy = 0.592\nsamples = 7\nvalue = [6, 1]"] ;
3 -> 4 ;
5 [label="handicapped infants <= 1.5\nentropy = 0.918\nsamples = 3\nvalue = [2, 1]"] ;
4 -> 5 ;
6 [label="entropy = 0.0\nsamples = 2\nvalue = [2, 0]"] ;
5 -> 6 ;
7 [label="entropy = 0.0\nsamples = 1\nvalue = [0, 1]"] ;
5 -> 7 ;
8 [label="entropy = 0.0\nsamples = 4\nvalue = [4, 0]"] ;
4 -> 8 ;
9 [label="el salvador aid <= 1.5\nentropy = 0.918\nsamples = 6\nvalue = [2, 4]"] ;
3 -> 9 ;
10 [label="entropy = 0.0\nsamples = 3\nvalue = [0, 3]"] ;
9 -> 10 ;
11 [label="superfund right to sue <= 1.0\nentropy = 0.918\nsamples = 3\nvalue = [2, 1]"] ;
9 -> 11 ;
12 [label="entropy = 0.0\nsamples = 1\nvalue = [0, 1]"] ;
11 -> 12 ;
13 [label="entropy = 0.0\nsamples = 2\nvalue = [2, 0]"] ;
11 -> 13 ;
14 [label="entropy = 0.0\nsamples = 15\nvalue = [15, 0]"] ;
2 -> 14 ;
15 [label="entropy = 0.0\nsamples = 173\nvalue = [173, 0]"] ;
1 -> 15 ;
16 [label="synfuels corporation cutback <= 1.5\nentropy = 0.431\nsamples = 147\nvalue = [13, 134]"] ;
0 -> 16 [labeldistance=2.5, labelangle=-45, headlabel="False"] ;
17 [label="duty free exports <= 1.5\nentropy = 0.169\nsamples = 120\nvalue = [3, 117]"] ;
16 -> 17 ;
18 [label="adoption of the budget resolution <= 1.5\nentropy = 0.076\nsamples = 108\nvalue = [1, 107]"] ;
17 -> 18 ;
19 [label="entropy = 0.0\nsamples = 97\nvalue = [0, 97]"] ;
18 -> 19 ;
20 [label="export administration act south africa <= 1.5\nentropy = 0.439\nsamples = 11\nvalue = [1, 10]"] ;
18 -> 20 ;
21 [label="entropy = 0.0\nsamples = 1\nvalue = [1, 0]"] ;
20 -> 21 ;
22 [label="entropy = 0.0\nsamples = 10\nvalue = [0, 10]"] ;
20 -> 22 ;
23 [label="immigration <= 1.0\nentropy = 0.65\nsamples = 12\nvalue = [2, 10]"] ;
17 -> 23 ;
24 [label="aid to nicaraguan contras <= 0.5\nentropy = 1.0\nsamples = 4\nvalue = [2, 2]"] ;
23 -> 24 ;
25 [label="export administration act south africa <= 0.5\nentropy = 0.918\nsamples = 3\nvalue = [2, 1]"] ;
24 -> 25 ;
26 [label="entropy = 0.0\nsamples = 1\nvalue = [0, 1]"] ;
25 -> 26 ;
27 [label="entropy = 0.0\nsamples = 2\nvalue = [2, 0]"] ;
25 -> 27 ;
28 [label="entropy = 0.0\nsamples = 1\nvalue = [0, 1]"] ;
24 -> 28 ;
29 [label="entropy = 0.0\nsamples = 8\nvalue = [0, 8]"] ;
23 -> 29 ;
30 [label="adoption of the budget resolution <= 0.5\nentropy = 0.951\nsamples = 27\nvalue = [10, 17]"] ;
16 -> 30 ;
31 [label="el salvador aid <= 1.0\nentropy = 0.722\nsamples = 20\nvalue = [4, 16]"] ;
30 -> 31 ;
32 [label="entropy = 0.0\nsamples = 2\nvalue = [2, 0]"] ;
31 -> 32 ;
33 [label="export administration act south africa <= 0.5\nentropy = 0.503\nsamples = 18\nvalue = [2, 16]"] ;
31 -> 33 ;
34 [label="superfund right to sue <= 1.0\nentropy = 0.918\nsamples = 6\nvalue = [2, 4]"] ;
33 -> 34 ;
35 [label="entropy = 0.0\nsamples = 1\nvalue = [1, 0]"] ;
34 -> 35 ;
36 [label="water project cost sharing <= 1.0\nentropy = 0.722\nsamples = 5\nvalue = [1, 4]"] ;
34 -> 36 ;
37 [label="handicapped infants <= 1.0\nentropy = 1.0\nsamples = 2\nvalue = [1, 1]"] ;
36 -> 37 ;
38 [label="entropy = 0.0\nsamples = 1\nvalue = [1, 0]"] ;
37 -> 38 ;
39 [label="entropy = 0.0\nsamples = 1\nvalue = [0, 1]"] ;
37 -> 39 ;
40 [label="entropy = 0.0\nsamples = 3\nvalue = [0, 3]"] ;
36 -> 40 ;
41 [label="entropy = 0.0\nsamples = 12\nvalue = [0, 12]"] ;
33 -> 41 ;
42 [label="el salvador aid <= 1.0\nentropy = 0.592\nsamples = 7\nvalue = [6, 1]"] ;
30 -> 42 ;
43 [label="entropy = 0.0\nsamples = 1\nvalue = [0, 1]"] ;
42 -> 43 ;
44 [label="entropy = 0.0\nsamples = 6\nvalue = [6, 0]"] ;
42 -> 44 ;
}